<?xml version="1.0"?>
<opencv_storage>
<cascade>
  <stageType>BOOST</stageType>
  <featureType>HAAR</featureType>
  <height>46</height>
  <width>38</width>
  <stageParams>
    <boostType>GAB</boostType>
    <minHitRate>9.9500000476837158e-01</minHitRate>
    <maxFalseAlarm>5.0000000000000000e-01</maxFalseAlarm>
    <weightTrimRate>9.4999998807907104e-01</weightTrimRate>
    <maxDepth>1</maxDepth>
    <maxWeakCount>100</maxWeakCount></stageParams>
  <featureParams>
    <maxCatCount>0</maxCatCount>
    <featSize>1</featSize>
    <mode>BASIC</mode></featureParams>
  <stageNum>4</stageNum>
  <stages>
    <!-- stage 0 -->
    <_>
      <maxWeakCount>3</maxWeakCount>
      <stageThreshold>-9.6253204345703125e-01</stageThreshold>
      <weakClassifiers>
        <_>
          <internalNodes>
            0 -1 9 -4.1100718080997467e-03</internalNodes>
          <leafValues>
            7.5999999046325684e-01 -8.0147057771682739e-01</leafValues></_>
        <_>
          <internalNodes>
            0 -1 4 2.5871391408145428e-03</internalNodes>
          <leafValues>
            -7.2671335935592651e-01 6.8825322389602661e-01</leafValues></_>
        <_>
          <internalNodes>
            0 -1 5 3.0083884485065937e-04</internalNodes>
          <leafValues>
            -8.4931468963623047e-01 5.7529020309448242e-01</leafValues></_></weakClassifiers></_>
    <!-- stage 1 -->
    <_>
      <maxWeakCount>3</maxWeakCount>
      <stageThreshold>-7.3587006330490112e-01</stageThreshold>
      <weakClassifiers>
        <_>
          <internalNodes>
            0 -1 6 -1.7579460982233286e-03</internalNodes>
          <leafValues>
            8.7755101919174194e-01 -8.1684982776641846e-01</leafValues></_>
        <_>
          <internalNodes>
            0 -1 2 -6.9880130467936397e-05</internalNodes>
          <leafValues>
            6.8049716949462891e-01 -7.4640578031539917e-01</leafValues></_>
        <_>
          <internalNodes>
            0 -1 3 1.0318465065211058e-03</internalNodes>
          <leafValues>
            -5.9951740503311157e-01 9.1982984542846680e-01</leafValues></_></weakClassifiers></_>
    <!-- stage 2 -->
    <_>
      <maxWeakCount>3</maxWeakCount>
      <stageThreshold>-9.5717239379882813e-01</stageThreshold>
      <weakClassifiers>
        <_>
          <internalNodes>
            0 -1 1 -2.3999456316232681e-03</internalNodes>
          <leafValues>
            1. -9.1603052616119385e-01</leafValues></_>
        <_>
          <internalNodes>
            0 -1 7 5.2186390385031700e-03</internalNodes>
          <leafValues>
            -8.3965295553207397e-01 1.</leafValues></_>
        <_>
          <internalNodes>
            0 -1 8 1.8289555737283081e-04</internalNodes>
          <leafValues>
            7.9851108789443970e-01 -8.6425215005874634e-01</leafValues></_></weakClassifiers></_>
    <!-- stage 3 -->
    <_>
      <maxWeakCount>1</maxWeakCount>
      <stageThreshold>1.</stageThreshold>
      <weakClassifiers>
        <_>
          <internalNodes>
            0 -1 0 1.2862873077392578e-01</internalNodes>
          <leafValues>
            1. -1.</leafValues></_></weakClassifiers></_></stages>
  <features>
    <_>
      <rects>
        <_>
          0 0 23 21 -1.</_>
        <_>
          0 7 23 7 3.</_></rects>
      <tilted>0</tilted></_>
    <_>
      <rects>
        <_>
          1 10 18 5 -1.</_>
        <_>
          7 10 6 5 3.</_></rects>
      <tilted>0</tilted></_>
    <_>
      <rects>
        <_>
          3 30 3 2 -1.</_>
        <_>
          4 30 1 2 3.</_></rects>
      <tilted>0</tilted></_>
    <_>
      <rects>
        <_>
          10 21 6 8 -1.</_>
        <_>
          10 21 3 4 2.</_>
        <_>
          13 25 3 4 2.</_></rects>
      <tilted>0</tilted></_>
    <_>
      <rects>
        <_>
          16 6 6 9 -1.</_>
        <_>
          16 9 6 3 3.</_></rects>
      <tilted>0</tilted></_>
    <_>
      <rects>
        <_>
          26 6 12 1 -1.</_>
        <_>
          30 6 4 1 3.</_></rects>
      <tilted>0</tilted></_>
    <_>
      <rects>
        <_>
          27 28 1 18 -1.</_>
        <_>
          27 34 1 6 3.</_></rects>
      <tilted>0</tilted></_>
    <_>
      <rects>
        <_>
          34 0 4 36 -1.</_>
        <_>
          34 0 2 18 2.</_>
        <_>
          36 18 2 18 2.</_></rects>
      <tilted>0</tilted></_>
    <_>
      <rects>
        <_>
          34 6 2 9 -1.</_>
        <_>
          34 9 2 3 3.</_></rects>
      <tilted>0</tilted></_>
    <_>
      <rects>
        <_>
          36 32 2 12 -1.</_>
        <_>
          36 36 2 4 3.</_></rects>
      <tilted>0</tilted></_></features></cascade>
</opencv_storage>
